digraph Tree {
node [shape=box, style="filled, rounded", color="black", fontname=helvetica] ;
edge [fontname=helvetica] ;
0 [label="sepal length (cm) <= 5.45\ngini = 0.66\nsamples = 94\nvalue = [48, 56, 46]\nclass = versicolor", fillcolor="#effdf5"] ;
1 [label="petal width (cm) <= 0.8\ngini = 0.22\nsamples = 27\nvalue = [44, 5, 1]\nclass = setosa", fillcolor="#e89253"] ;
0 -> 1 [labeldistance=2.5, labelangle=45, headlabel="True"] ;
2 [label="gini = 0.0\nsamples = 22\nvalue = [44, 0, 0]\nclass = setosa", fillcolor="#e58139"] ;
1 -> 2 ;
3 [label="sepal length (cm) <= 4.95\ngini = 0.28\nsamples = 5\nvalue = [0, 5, 1]\nclass = versicolor", fillcolor="#61ea9a"] ;
1 -> 3 ;
4 [label="petal width (cm) <= 1.35\ngini = 0.5\nsamples = 2\nvalue = [0, 1, 1]\nclass = versicolor", fillcolor="#ffffff"] ;
3 -> 4 ;
5 [label="gini = 0.0\nsamples = 1\nvalue = [0, 1, 0]\nclass = versicolor", fillcolor="#39e581"] ;
4 -> 5 ;
6 [label="gini = 0.0\nsamples = 1\nvalue = [0, 0, 1]\nclass = virginica", fillcolor="#8139e5"] ;
4 -> 6 ;
7 [label="gini = 0.0\nsamples = 3\nvalue = [0, 4, 0]\nclass = versicolor", fillcolor="#39e581"] ;
3 -> 7 ;
8 [label="petal width (cm) <= 1.75\ngini = 0.54\nsamples = 67\nvalue = [4, 51, 45]\nclass = versicolor", fillcolor="#e9fcf1"] ;
0 -> 8 [labeldistance=2.5, labelangle=-45, headlabel="False"] ;
9 [label="petal length (cm) <= 2.65\ngini = 0.23\nsamples = 40\nvalue = [4, 49, 3]\nclass = versicolor", fillcolor="#54e892"] ;
8 -> 9 ;
10 [label="gini = 0.0\nsamples = 4\nvalue = [4, 0, 0]\nclass = setosa", fillcolor="#e58139"] ;
9 -> 10 ;
11 [label="petal width (cm) <= 1.35\ngini = 0.11\nsamples = 36\nvalue = [0, 49, 3]\nclass = versicolor", fillcolor="#45e789"] ;
9 -> 11 ;
12 [label="gini = 0.0\nsamples = 18\nvalue = [0, 26, 0]\nclass = versicolor", fillcolor="#39e581"] ;
11 -> 12 ;
13 [label="petal length (cm) <= 5.05\ngini = 0.2\nsamples = 18\nvalue = [0, 23, 3]\nclass = versicolor", fillcolor="#53e891"] ;
11 -> 13 ;
14 [label="sepal width (cm) <= 2.35\ngini = 0.08\nsamples = 15\nvalue = [0, 22, 1]\nclass = versicolor", fillcolor="#42e687"] ;
13 -> 14 ;
15 [label="petal length (cm) <= 4.75\ngini = 0.38\nsamples = 2\nvalue = [0, 3, 1]\nclass = versicolor", fillcolor="#7beeab"] ;
14 -> 15 ;
16 [label="gini = 0.0\nsamples = 1\nvalue = [0, 3, 0]\nclass = versicolor", fillcolor="#39e581"] ;
15 -> 16 ;
17 [label="gini = 0.0\nsamples = 1\nvalue = [0, 0, 1]\nclass = virginica", fillcolor="#8139e5"] ;
15 -> 17 ;
18 [label="gini = 0.0\nsamples = 13\nvalue = [0, 19, 0]\nclass = versicolor", fillcolor="#39e581"] ;
14 -> 18 ;
19 [label="sepal length (cm) <= 6.05\ngini = 0.44\nsamples = 3\nvalue = [0, 1, 2]\nclass = virginica", fillcolor="#c09cf2"] ;
13 -> 19 ;
20 [label="gini = 0.0\nsamples = 1\nvalue = [0, 1, 0]\nclass = versicolor", fillcolor="#39e581"] ;
19 -> 20 ;
21 [label="gini = 0.0\nsamples = 2\nvalue = [0, 0, 2]\nclass = virginica", fillcolor="#8139e5"] ;
19 -> 21 ;
22 [label="petal length (cm) <= 4.85\ngini = 0.09\nsamples = 27\nvalue = [0, 2, 42]\nclass = virginica", fillcolor="#8742e6"] ;
8 -> 22 ;
23 [label="sepal length (cm) <= 6.05\ngini = 0.5\nsamples = 2\nvalue = [0, 2, 2]\nclass = versicolor", fillcolor="#ffffff"] ;
22 -> 23 ;
24 [label="gini = 0.0\nsamples = 1\nvalue = [0, 2, 0]\nclass = versicolor", fillcolor="#39e581"] ;
23 -> 24 ;
25 [label="gini = 0.0\nsamples = 1\nvalue = [0, 0, 2]\nclass = virginica", fillcolor="#8139e5"] ;
23 -> 25 ;
26 [label="gini = 0.0\nsamples = 25\nvalue = [0, 0, 40]\nclass = virginica", fillcolor="#8139e5"] ;
22 -> 26 ;
}